{
  "type": "perceptron",
  "classifications": ["NORMAL", "COVID"],
  "featureIndices": [
    757, 231, 722, 297, 1053, 782, 983, 859, 339, 610, 662, 953, 466, 227, 892,
    433, 957, 635, 803, 138, 421, 584, 73, 940, 60, 187, 1165, 1030, 156, 820,
    1094, 413, 152, 1125, 1063, 312, 342, 128, 881, 605, 1186, 324, 1016, 200,
    831, 114, 1114, 576, 71, 447, 1236, 545, 1109, 1178, 867, 872, 262, 1013,
    619, 102, 850, 599, 1012, 862, 1179, 609, 893, 1188, 445, 1169, 442, 422,
    1078, 294, 861, 837, 1209, 946, 48, 1215, 614, 771, 363, 743, 636, 966, 41,
    380, 122, 836, 1042, 557, 1171, 704, 1021, 18, 360, 397, 426, 290, 1270,
    882, 711, 248, 150, 259, 876, 1183, 337, 219, 1088, 524, 652, 348, 760, 646,
    326, 924, 489, 1195, 1274, 341, 196, 321, 640, 125, 657, 1098, 225, 592,
    666, 817, 1019, 1198, 78, 16, 726, 1056, 1153, 61, 484, 1214, 866, 468,
    1139, 1132, 581, 958, 398, 130, 764, 1106, 885, 548, 108, 177, 1226, 693,
    210, 80, 213, 1087, 493, 453, 960, 547, 416, 217, 255, 1160, 178, 222, 27,
    1050, 593, 479, 976, 570, 929, 123, 287, 302, 182, 481, 772, 1242, 974,
    1213, 682, 336, 792, 838, 900, 220, 677, 683, 857, 648, 638, 499, 920, 1208,
    829, 855, 937, 810, 932, 680, 1102, 1005, 1276, 31, 475, 785, 864, 46, 1067,
    987, 618, 588, 1250, 415, 371, 741, 550, 669, 161, 273, 393, 888, 367, 378,
    770, 1177, 254, 863, 461, 1140, 826, 615, 1267, 1264, 97, 880, 1010, 1081,
    908, 1196, 805, 977, 703, 432, 921, 1044, 263, 869, 34, 765, 719, 877, 118,
    313, 362, 701, 1099, 15, 529, 232, 1036, 539, 151, 813, 994, 347, 1105, 133,
    898, 190, 1057, 717, 86, 1075, 332, 887, 870, 358, 596, 409, 444, 1045, 492,
    696, 1261, 490, 1070, 649, 632, 572, 1097, 316, 1093, 1271, 439, 471, 523,
    1059, 21, 1031, 448, 19, 270, 965, 629, 1272, 740, 521, 207, 651, 835, 382,
    990, 1273, 993, 530, 912, 311, 183, 474, 261, 1262, 1065, 1072, 578, 402,
    691, 1199, 170, 944, 860, 603, 1084, 113, 228, 276, 353, 269, 241, 352, 291,
    245, 699, 763, 175, 933, 503, 791, 623, 1245, 147, 587, 739, 660, 412, 956,
    541, 518, 154, 1172, 72, 767, 428, 467, 195, 201, 664, 808, 981, 832, 787,
    995, 890, 1032, 1194, 425, 340, 856, 309, 375, 796, 819, 661, 712, 721, 191,
    628, 1003, 1137, 171, 818, 1239
  ],
  "weights": [
    0.590080738067627, 0.5554493069648743, 0.45739173889160156,
    0.42614486813545227, -0.422762930393219, 0.4165714383125305,
    0.41629037261009216, -0.41398659348487854, 0.4122205376625061,
    0.41051164269447327, 0.40948155522346497, -0.37433743476867676,
    0.3714023530483246, 0.3674018085002899, 0.36152753233909607,
    0.35676929354667664, -0.3558948040008545, -0.3528478145599365,
    0.33489829301834106, -0.3280279040336609, -0.32671424746513367,
    0.32058820128440857, -0.31606853008270264, 0.3125913441181183,
    0.30201148986816406, -0.30160364508628845, 0.29601213335990906,
    -0.29197177290916443, 0.29030004143714905, 0.28186050057411194,
    0.28131771087646484, -0.2798253297805786, -0.27837541699409485,
    -0.2745387852191925, 0.27210599184036255, -0.2698040306568146,
    0.2671964764595032, 0.26573771238327026, -0.26569750905036926,
    -0.26446208357810974, -0.25940242409706116, 0.25926029682159424,
    -0.25644129514694214, 0.2552618980407715, 0.25441527366638184,
    0.2537687122821808, 0.2505735158920288, 0.2485971450805664,
    -0.2485700100660324, 0.2417539358139038, -0.2394280731678009,
    0.23765461146831512, -0.2365754246711731, 0.23474687337875366,
    -0.23343537747859955, 0.23233018815517426, -0.23188599944114685,
    0.22925302386283875, 0.22627004981040955, 0.22451899945735931,
    0.224130317568779, 0.2237129807472229, 0.22312889993190765,
    0.2227155715227127, -0.22215569019317627, 0.22002217173576355,
    -0.21968065202236176, 0.21963872015476227, -0.21824806928634644,
    -0.21811935305595398, 0.21648648381233215, -0.2162627875804901,
    0.21613100171089172, 0.209862619638443, 0.20953749120235443,
    0.20783722400665283, 0.2067340612411499, -0.20650091767311096,
    -0.20595195889472961, -0.20536428689956665, 0.2043982446193695,
    -0.2037864625453949, 0.20323413610458374, 0.20273181796073914,
    0.20008480548858643, -0.19924500584602356, -0.19753402471542358,
    -0.19692400097846985, -0.19685177505016327, -0.1965114176273346,
    0.19628414511680603, 0.19517198204994202, -0.19434869289398193,
    -0.19298623502254486, 0.19293276965618134, -0.1907084882259369,
    -0.18821775913238525, 0.1877414733171463, 0.18723562359809875,
    -0.18616880476474762, 0.18516001105308533, 0.18480440974235535,
    0.18414223194122314, 0.18414010107517242, 0.18301650881767273,
    0.18171218037605286, -0.1803845465183258, 0.17893312871456146,
    -0.17843104898929596, 0.17809736728668213, 0.17745928466320038,
    -0.1769690364599228, 0.17685332894325256, -0.17659220099449158,
    0.17619889974594116, -0.17604438960552216, 0.17358830571174622,
    -0.17213022708892822, 0.17191806435585022, 0.17034564912319183,
    0.17030069231987, 0.16893142461776733, 0.1686551421880722,
    0.16845573484897614, 0.16793233156204224, 0.16789637506008148,
    -0.16740116477012634, 0.1669914424419403, -0.16663730144500732,
    0.1663743555545807, -0.16621166467666626, 0.16617223620414734,
    -0.16582129895687103, 0.16537290811538696, 0.16534928977489471,
    0.16506102681159973, -0.16425645351409912, 0.16394759714603424,
    0.16366331279277802, -0.162824347615242, 0.16277341544628143,
    0.16190077364444733, -0.16135293245315552, 0.1610250324010849,
    -0.16056279838085175, 0.16055653989315033, -0.159804567694664,
    -0.15945205092430115, -0.15730834007263184, -0.1570058912038803,
    0.1561707705259323, 0.15613913536071777, 0.15488895773887634,
    -0.15488535165786743, -0.15477782487869263, -0.1544111669063568,
    0.15369975566864014, -0.15334776043891907, 0.15301598608493805,
    -0.1527504175901413, 0.1525329351425171, -0.1516195386648178,
    0.15089286863803864, 0.1508195847272873, 0.15081867575645447,
    0.15027467906475067, 0.14944136142730713, 0.14906349778175354,
    -0.14900588989257812, -0.148487851023674, 0.1483433097600937,
    -0.14811570942401886, 0.14790865778923035, -0.14758381247520447,
    0.14618384838104248, -0.145636186003685, 0.1445244550704956,
    0.14449341595172882, 0.1442691683769226, 0.14397460222244263,
    0.14392971992492676, 0.14360131323337555, 0.1434316188097,
    -0.14238454401493073, 0.14199437201023102, 0.14192746579647064,
    -0.14192603528499603, 0.14189140498638153, 0.141876682639122,
    0.1406586468219757, 0.1400831639766693, 0.13976016640663147,
    -0.13946397602558136, 0.1388673335313797, -0.13850337266921997,
    -0.13825723528862, -0.13784165680408478, 0.1377255767583847,
    0.13694976270198822, 0.13663025200366974, -0.13574866950511932,
    0.1356014907360077, 0.13529044389724731, 0.13410066068172455,
    0.13325399160385132, 0.132691890001297, -0.13239283859729767,
    0.132061168551445, 0.13156627118587494, -0.13116875290870667,
    -0.13103362917900085, -0.1305234432220459, 0.13035422563552856,
    -0.1299627721309662, -0.1298026740550995, 0.12959161400794983,
    0.12946869432926178, 0.12940281629562378, -0.1293117254972458,
    -0.12910567224025726, 0.12900516390800476, 0.1275506615638733,
    -0.12751035392284393, -0.12729758024215698, -0.12611985206604004,
    0.12575146555900574, 0.1248256117105484, -0.12423209846019745,
    0.12421710789203644, 0.1235196515917778, -0.12227903306484222,
    -0.12154652178287506, -0.12061625719070435, 0.12055124342441559,
    0.11988911032676697, 0.1196802631020546, -0.11912823468446732,
    0.11898438632488251, 0.11893527954816818, 0.1187824010848999,
    -0.11871625483036041, -0.11860577762126923, -0.11840656399726868,
    -0.11767858266830444, 0.11747892200946808, -0.11684846878051758,
    0.1167917475104332, -0.11660315096378326, 0.1163666844367981,
    0.11552973836660385, 0.11547201871871948, -0.11541397124528885,
    0.11506173014640808, -0.1150444895029068, 0.11498621851205826,
    0.11484323441982269, 0.11463518440723419, 0.11441739648580551,
    0.11438614875078201, 0.11403753608465195, 0.11397622525691986,
    0.11384784430265427, -0.11254867911338806, 0.11242984235286713,
    0.11212312430143356, -0.11152505874633789, -0.11148720234632492,
    0.11128801852464676, 0.11095956712961197, -0.1109139621257782,
    -0.11064670979976654, 0.11018579453229904, -0.11002621799707413,
    -0.10996383428573608, -0.10963622480630875, 0.10852880775928497,
    -0.10832127928733826, 0.10681942850351334, 0.10633818805217743,
    0.10609691590070724, 0.10567871481180191, -0.10559658706188202,
    0.10526861250400543, -0.10515661537647247, 0.1048927828669548,
    -0.1042127013206482, 0.10399820655584335, -0.10362391173839569,
    0.10351459681987762, 0.1030844897031784, 0.10298294574022293,
    0.10286267101764679, 0.10281872004270554, -0.10276931524276733,
    0.102156862616539, -0.10214632004499435, 0.10183688998222351,
    0.10171391814947128, 0.10169732570648193, 0.10082922130823135,
    -0.10076902061700821, 0.10076545178890228, 0.10060731321573257,
    0.10048417747020721, 0.10002000629901886, 0.09966126829385757,
    0.09931575506925583, -0.09907679259777069, 0.09907375276088715,
    -0.09889213740825653, 0.09884639829397202, 0.09882957488298416,
    -0.09880085289478302, -0.09864230453968048, 0.09725835919380188,
    0.09659874439239502, 0.09640587866306305, -0.0957171618938446,
    -0.09565750509500504, -0.09530749917030334, 0.09526562690734863,
    0.09525411576032639, 0.09508240967988968, -0.09475919604301453,
    0.09467053413391113, 0.09460854530334473, 0.09437984973192215,
    0.09335330128669739, 0.09288913011550903, 0.09212340414524078,
    0.09183888882398605, 0.09164246171712875, -0.09134484827518463,
    0.09110215306282043, -0.09107431024312973, -0.09079728275537491,
    0.09059683978557587, 0.09026134014129639, 0.08953678607940674,
    0.0895126610994339, 0.08944529294967651, 0.08926969766616821,
    0.08908678591251373, 0.08881223201751709, 0.08873029053211212,
    -0.08871038258075714, 0.08851552754640579, 0.08738725632429123,
    0.08722467720508575, -0.08688658475875854, 0.08672286570072174,
    -0.08651576191186905, 0.08647030591964722, 0.08643846958875656,
    0.08621545135974884, 0.086140938103199, -0.08596211671829224,
    -0.08592061698436737, -0.0858558863401413, -0.08574678748846054,
    -0.08569516986608505, 0.08548092842102051, 0.08469837158918381,
    0.08435553312301636, -0.08396169543266296, -0.08384852111339569,
    0.083810955286026, 0.08369188010692596, -0.08356402069330215,
    0.08355208486318588, -0.0835239365696907, 0.08345793187618256,
    -0.08345721662044525, 0.0833447277545929, 0.08307494968175888,
    0.08292808383703232, 0.08290772140026093, 0.08286610245704651,
    -0.0827043205499649, 0.08209865540266037, -0.08194445073604584,
    0.08185195922851562, 0.08185068517923355, 0.08169320970773697,
    -0.08159459382295609, 0.08120366930961609, -0.08087904006242752,
    0.08078218996524811, -0.08072692155838013, 0.08071804791688919,
    -0.08050189912319183, -0.08032019436359406, 0.08030088245868683,
    0.08023826777935028, 0.08010178804397583, 0.08004851639270782,
    0.08000411093235016, -0.07997497916221619, 0.0794517993927002,
    -0.07937712222337723
  ],
  "bias": 0
}
